tree
version=v4
num_class=1
num_tree_per_iteration=1
label_index=0
max_feature_idx=69
objective=binary sigmoid:1
feature_names=ret_1 ret_5 ret_20 ret_60 log_ret_1 overnight_gap range_pct sma_5 ema_5 sma_10 ema_10 sma_20 ema_20 sma_50 ema_50 sma_200 ema_200 price_vs_sma20 price_vs_sma50 price_vs_sma200 ma_cross_50_200 ma_cross_20_50 macd macd_signal macd_hist macd_bull rsi_14 rsi_overbought rsi_oversold stoch_k stoch_d adx adx_pos adx_neg trending_strong atr_14 atr_pct bb_upper bb_lower bb_middle bb_width bb_pct bb_squeeze kc_upper kc_lower ttm_squeeze obv mfi_14 volume_zscore_20 volume_spike realized_vol_20 donchian_high_20 donchian_low_20 donchian_break_up donchian_break_down sent_avg_24h sent_count_24h sent_pos_pct_24h sent_neg_pct_24h sent_net_24h sent_avg_72h sent_count_72h sent_pos_pct_72h sent_neg_pct_72h sent_net_72h sent_avg_168h sent_count_168h sent_pos_pct_168h sent_neg_pct_168h sent_net_168h
feature_infos=[-0.89925385480775599:0.24432635890623278] [-0.91059729808733936:0.44127820787349692] [-0.92189443396821213:0.60088930493798243] [-0.91214181721924426:1.025321608858492] [-2.2951513400064858:0.2185943062978386] [-0.9004284957977633:0.18399202922617075] [0.0025780633741847971:0.64816487396337941] [19.154:1755.9959999999999] [19.262878092835486:1722.3950494712522] [19.544:1696.682] [19.605675230478067:1696.5350745136545] [19.8505:1687.8544999999999] [19.913975414633249:1652.37533694131] [20.414999999999999:1496.5620000000001] [20.639062133091517:1538.1222090546655] [21.619399999999995:1210.88985] [22.568527030805953:1258.7259519348538] [-0.89369144098888909:0.42110857837982246] [-0.89102265782728463:0.5523782903846105] [-0.88128728679140733:1.1124173523204079] [-1:1] [-1:1] [-394.28711193324864:106.07904276088698] [-343.41212433869453:78.343468716838643] [-197.15830571593909:53.412244134558819] [0:1] [12.719349920548041:88.924085724629023] [0:1] [0:1] [0:100.00000000000001] [0.11438892436467846:99.768337598056249] [7.5304642386966378:65.879021049134977] [6.5429646672406401:60.788311659003334] [4.8926201698305958:72.584368588733781] [0:1] [0.67477694522791942:163.80575843786048] [0.0071451536718830488:0.98739824268816445] [20.79414135135994:2596.1589657706299] [-811.75859096521924:1546.8367714017725] [19.8505:1687.8544999999999] [0.022023413819442145:6.0344603530704859] [-0.56577498708793361:1.5167066483562104] [0:1] [20.504316666666668:1749.2463133333335] [18.671006666666663:1630.7937433333332] [0:1] [-1604143101:4677871444] [6.2969993294978792:97.214815466937807] [-2.3309705433352579:4.1870463435573351] [0:1] [0.057965820106077509:8.2265490882835692] [20.98:1851.6199999999999] [17.664999999999999:1564] [0:1] [0:1] [-0.024097047280520201:0.60885921120643616] [1:19] [0:1] [0:0.31578947368421051] [0:1] [-0.13263406977057457:0.91413670964539051] [1:77] [0:1] [0:0.41176470588235292] [-12:4] [-0.13263406977057457:0.66662520915269852] [1:93] [0:1] [0:0.44444444444444442] [-13:4]
tree_sizes=1569 1614 1695

Tree=0
num_leaves=14
num_cat=0
split_feature=40 5 48 5 18 19 30 30 1 40 30 43 44
split_gain=8.80541 9.19085 15.0533 11.605 10.4193 13.2616 13.023 7.37717 6.50696 8.98595 5.74638 4.56009 5.00693
threshold=0.31514013146799819 0.010105534949543979 2.5100010031154016 0.030865128281021028 -0.042878463502900276 0.13075926738693996 57.131404548785504 87.265501411014256 -0.022588664480043371 0.32818896796477753 67.698518877906025 24.125650000000004 251.06546833333337
decision_type=2 2 2 2 2 2 2 2 2 2 2 2 2
left_child=1 4 3 -3 6 -6 -1 -4 9 -2 -11 -10 -13
right_child=8 2 7 -5 5 -7 -8 -9 11 10 -12 12 -14
leaf_value=0.138827322223912 0.076676128144145414 0.15465591659601599 0.090225035934106385 0.19631796859415221 0.1501598183447678 0.13841970465192907 0.10571645979238209 0.17912703035145927 0.07039278470590675 0.1475075215436879 0.21777523954993369 0.13429989049182331 0.099455545190939146
leaf_weight=211.65439662337303 3.9794011116027859 162.65802043676376 12.186915904283522 18.653442710638046 620.78657341003418 392.21972206234932 34.571047157049179 2.7358382642269126 4.7255388200283042 24.622544378042225 3.2332634031772605 30.591646045446396 15.917604446411131
leaf_count=851 16 654 49 75 2496 1577 139 11 19 99 13 123 64
internal_value=0.14377 0.144936 0.154999 0.158996 0.143371 0.145609 0.134145 0.106983 0.128209 0.145817 0.156078 0.117189 0.122198
internal_weight=0 1455.47 196.234 181.311 1259.23 1013.01 246.225 14.9228 83.07 31.8352 27.8558 51.2348 46.5093
internal_count=6186 5852 789 729 5063 4073 990 60 334 128 112 206 187
is_linear=0
shrinkage=1


Tree=1
num_leaves=14
num_cat=0
split_feature=40 2 40 41 24 48 1 40 6 24 46 55 30
split_gain=7.94926 9.46699 10.1142 8.59657 9.73022 8.2545 5.87097 8.10933 5.76915 5.40007 5.32497 8.64841 4.15291
threshold=0.31514013146799819 -0.15102462709888151 0.19817364766338125 -0.10515922012129521 -2.2145102319724876 -1.2732978435729219 -0.022588664480043371 0.32818896796477753 0.026669189959819619 -1.0000000180025095e-35 3915502373.5000005 0.029135160148143772 17.506918469845012
decision_type=2 2 2 2 2 2 2 2 2 2 2 8 2
left_child=1 2 12 4 -3 -5 7 -2 -4 -9 11 -8 -1
right_child=6 3 8 5 -6 -7 10 9 -10 -11 -12 -13 -14
leaf_value=0.0240502604681447 -0.063585659001484204 0.0085850268411140195 0.0048366427016258186 -0.016142685018515731 -0.052773666427760962 0.0018725376716834303 0.02279706759909722 -0.0010976310343571857 0.056227026379504476 0.048737758317808626 -0.078716493639511442 -0.03077017256919673 -0.048256577687346119
leaf_weight=2.9855915307998639 3.9941265583038357 10.693767175078394 7.9606396108865765 66.650484815239906 15.669725522398947 1326.9591331630945 9.2134826481342316 20.637535631656654 19.151051551103592 7.1900890916585878 4.2390010356903067 37.863896429538727 5.2240053862333298
leaf_count=12 16 43 32 268 63 5336 37 83 77 29 17 152 21
internal_value=0 0.00110732 0.0266424 0.000466789 -0.0277575 0.00100626 -0.014779 0.00194891 0.0413946 0.0117282 -0.0252329 -0.0201545 -0.021386
internal_weight=0 1455.29 35.3213 1419.97 26.3635 1393.61 83.1381 31.8218 27.1117 27.8276 51.3164 47.0774 8.2096
internal_count=6186 5852 142 5710 106 5604 334 128 109 112 206 189 33
is_linear=0
shrinkage=0.05


Tree=2
num_leaves=15
num_cat=0
split_feature=40 2 40 41 24 19 32 30 0 23 15 24 24 35
split_gain=7.17959 8.57705 9.28557 7.74481 8.75513 7.44577 6.4483 5.59432 5.40313 6.80661 6.82691 5.16533 10.0726 2.71991
threshold=0.31514013146799819 -0.15102462709888151 0.18803860234034761 -0.10515922012129521 -2.2145102319724876 0.12974720961414773 12.142764805112323 17.506918469845012 -0.0030325884050405589 19.856301258175669 133.92122500000002 7.8437335641938875 4.2801220339053909 24.769743825733666
decision_type=2 2 2 2 2 2 2 2 2 2 2 2 2 2
left_child=1 2 7 4 -3 -5 -4 -1 9 10 -2 12 -10 -13
right_child=8 3 6 5 -6 -7 -8 -9 11 -11 -12 13 -14 -15
leaf_value=0.028908615694323 -0.020087355153006789 0.0081650289517295818 0 0.0035343335456583095 -0.049994804149776188 -0.0042248617413062168 0.052488687568071249 -0.064387610243217597 -0.029096310347200578 -0.057513918514640432 0.025463407148284073 -0.10019964672473365 0.044712632233161236 -0.028303030244066493
leaf_weight=2.4834923446178427 13.441972121596335 10.686969608068468 8.1812320351600665 931.0824421942234 15.717855021357535 462.41933219134808 20.579897984862328 3.9914780259132385 33.384710028767586 4.4871750175952902 20.639914497733116 3.241463139653205 5.2247392088174811 2.7457478791475296
leaf_count=10 54 43 33 3745 63 1859 83 16 134 18 83 13 21 11
internal_value=0 0.00105233 0.0253876 0.000443163 -0.0263248 0.000955818 0.0376235 -0.0279477 -0.0140429 -0.000200158 0.0073456 -0.0258756 -0.0188894 -0.0690557
internal_weight=0 1455.14 35.2361 1419.91 26.4048 1393.5 28.7611 6.47497 83.1657 38.5691 34.0819 44.5967 38.6094 5.98721
internal_count=6186 5852 142 5710 106 5604 116 26 334 155 137 179 155 24
is_linear=0
shrinkage=0.05


end of trees

feature_importances:
bb_width=7
macd_hist=5
stoch_d=5
ret_5=2
ret_20=2
overnight_gap=2
price_vs_sma200=2
bb_pct=2
volume_zscore_20=2
ret_1=1
range_pct=1
sma_200=1
price_vs_sma50=1
macd_signal=1
adx_pos=1
atr_14=1
kc_upper=1
kc_lower=1
obv=1
sent_avg_24h=1

parameters:
[boosting: gbdt]
[objective: binary]
[metric: binary_logloss,auc]
[tree_learner: serial]
[device_type: cpu]
[data_sample_strategy: bagging]
[data: ]
[valid: ]
[num_iterations: 500]
[learning_rate: 0.05]
[num_leaves: 15]
[num_threads: 0]
[seed: 0]
[deterministic: 0]
[force_col_wise: 1]
[force_row_wise: 0]
[histogram_pool_size: -1]
[max_depth: 4]
[min_data_in_leaf: 10]
[min_sum_hessian_in_leaf: 0.001]
[bagging_fraction: 0.8]
[pos_bagging_fraction: 1]
[neg_bagging_fraction: 1]
[bagging_freq: 5]
[bagging_seed: 3]
[feature_fraction: 0.8]
[feature_fraction_bynode: 1]
[feature_fraction_seed: 2]
[extra_trees: 0]
[extra_seed: 6]
[early_stopping_round: 0]
[early_stopping_min_delta: 0]
[first_metric_only: 0]
[max_delta_step: 0]
[lambda_l1: 0.1]
[lambda_l2: 0.1]
[linear_lambda: 0]
[min_gain_to_split: 0]
[drop_rate: 0.1]
[max_drop: 50]
[skip_drop: 0.5]
[xgboost_dart_mode: 0]
[uniform_drop: 0]
[drop_seed: 4]
[top_rate: 0.2]
[other_rate: 0.1]
[min_data_per_group: 100]
[max_cat_threshold: 32]
[cat_l2: 10]
[cat_smooth: 10]
[max_cat_to_onehot: 4]
[top_k: 20]
[monotone_constraints: ]
[monotone_constraints_method: basic]
[monotone_penalty: 0]
[feature_contri: ]
[forcedsplits_filename: ]
[refit_decay_rate: 0.9]
[cegb_tradeoff: 1]
[cegb_penalty_split: 0]
[cegb_penalty_feature_lazy: ]
[cegb_penalty_feature_coupled: ]
[path_smooth: 0]
[interaction_constraints: ]
[verbosity: -1]
[saved_feature_importance_type: 0]
[use_quantized_grad: 0]
[num_grad_quant_bins: 4]
[quant_train_renew_leaf: 0]
[stochastic_rounding: 1]
[linear_tree: 0]
[max_bin: 255]
[max_bin_by_feature: ]
[min_data_in_bin: 3]
[bin_construct_sample_cnt: 200000]
[data_random_seed: 1]
[is_enable_sparse: 1]
[enable_bundle: 1]
[use_missing: 1]
[zero_as_missing: 0]
[feature_pre_filter: 1]
[pre_partition: 0]
[two_round: 0]
[header: 0]
[label_column: ]
[weight_column: ]
[group_column: ]
[ignore_column: ]
[categorical_feature: ]
[forcedbins_filename: ]
[precise_float_parser: 0]
[parser_config_file: ]
[objective_seed: 5]
[num_class: 1]
[is_unbalance: 0]
[scale_pos_weight: 1]
[sigmoid: 1]
[boost_from_average: 1]
[reg_sqrt: 0]
[alpha: 0.9]
[fair_c: 1]
[poisson_max_delta_step: 0.7]
[tweedie_variance_power: 1.5]
[lambdarank_truncation_level: 30]
[lambdarank_norm: 1]
[label_gain: ]
[lambdarank_position_bias_regularization: 0]
[eval_at: ]
[multi_error_top_k: 1]
[auc_mu_weights: ]
[num_machines: 1]
[local_listen_port: 12400]
[time_out: 120]
[machine_list_filename: ]
[machines: ]
[gpu_platform_id: -1]
[gpu_device_id: -1]
[gpu_use_dp: 0]
[num_gpu: 1]

end of parameters

pandas_categorical:[]
