tree
version=v4
num_class=1
num_tree_per_iteration=1
label_index=0
max_feature_idx=69
objective=binary sigmoid:1
feature_names=ret_1 ret_5 ret_20 ret_60 log_ret_1 overnight_gap range_pct sma_5 ema_5 sma_10 ema_10 sma_20 ema_20 sma_50 ema_50 sma_200 ema_200 price_vs_sma20 price_vs_sma50 price_vs_sma200 ma_cross_50_200 ma_cross_20_50 macd macd_signal macd_hist macd_bull rsi_14 rsi_overbought rsi_oversold stoch_k stoch_d adx adx_pos adx_neg trending_strong atr_14 atr_pct bb_upper bb_lower bb_middle bb_width bb_pct bb_squeeze kc_upper kc_lower ttm_squeeze obv mfi_14 volume_zscore_20 volume_spike realized_vol_20 donchian_high_20 donchian_low_20 donchian_break_up donchian_break_down sent_avg_24h sent_count_24h sent_pos_pct_24h sent_neg_pct_24h sent_net_24h sent_avg_72h sent_count_72h sent_pos_pct_72h sent_neg_pct_72h sent_net_72h sent_avg_168h sent_count_168h sent_pos_pct_168h sent_neg_pct_168h sent_net_168h
feature_infos=[-0.89925385480775599:0.24432635890623278] [-0.91059729808733936:0.44127820787349692] [-0.92189443396821213:0.60088930493798243] [-0.91214181721924426:1.025321608858492] [-2.2951513400064858:0.2185943062978386] [-0.9004284957977633:0.18399202922617075] [0.0025780633741847971:0.64816487396337941] [19.154:1755.9959999999999] [19.262878092835486:1722.3950494712522] [19.544:1696.682] [19.605675230478067:1696.5350745136545] [19.8505:1687.8544999999999] [19.913975414633249:1652.37533694131] [20.414999999999999:1496.5620000000001] [20.639062133091517:1538.1222090546655] [21.619399999999995:1210.88985] [22.568527030805953:1258.7259519348538] [-0.89369144098888909:0.42110857837982246] [-0.89102265782728463:0.5523782903846105] [-0.88128728679140733:1.1124173523204079] [-1:1] [-1:1] [-394.28711193324864:106.07904276088698] [-343.41212433869453:78.343468716838643] [-197.15830571593909:53.412244134558819] [0:1] [12.719349920548041:88.924085724629023] [0:1] [0:1] [0:100.00000000000001] [0.11438892436467846:99.768337598056249] [7.5304642386966378:65.879021049134977] [6.5429646672406401:60.788311659003334] [4.8926201698305958:72.584368588733781] [0:1] [0.67477694522791942:163.80575843786048] [0.0071451536718830488:0.98739824268816445] [20.79414135135994:2596.1589657706299] [-811.75859096521924:1546.8367714017725] [19.8505:1687.8544999999999] [0.022023413819442145:6.0344603530704859] [-0.56577498708793361:1.5167066483562104] [0:1] [20.504316666666668:1749.2463133333335] [18.671006666666663:1630.7937433333332] [0:1] [-1604143101:4677871444] [6.2969993294978792:97.214815466937807] [-2.3309705433352579:4.1870463435573351] [0:1] [0.057965820106077509:8.2265490882835692] [20.98:1851.6199999999999] [17.664999999999999:1564] [0:1] [0:1] [-0.024097047280520201:0.60885921120643616] [1:19] [0:1] [0:0.31578947368421051] [0:1] [-0.13263406977057457:0.91413670964539051] [1:77] [0:1] [0:0.41176470588235292] [-12:4] [-0.13263406977057457:0.66662520915269852] [1:93] [0:1] [0:0.44444444444444442] [-13:4]
tree_sizes=1678

Tree=0
num_leaves=15
num_cat=0
split_feature=19 63 7 7 24 40 40 60 42 61 32 24 47 13
split_gain=27.2493 24.7709 25.3798 24.3894 19.1727 17.6006 12.7596 22.3175 33.0925 19.8008 17.4203 15.8336 13.1537 8.58031
threshold=0.20667508782895394 0.3725490196078432 22.653000000000002 39.884999999999998 0.50599745712734923 0.068991984943966841 0.14636074250860226 0.019722268916666511 1.0000000180025095e-35 4.5000000000000009 33.788542656373515 -6.2336341766759329 62.90101271749721 21.231000000000002
decision_type=2 10 2 2 2 2 2 8 2 8 2 2 2 2
left_child=1 3 13 -1 -5 -4 7 8 -2 11 -11 -8 -9 -3
right_child=6 2 5 4 -6 -7 9 12 -10 10 -12 -13 -14 -15
leaf_value=0.26417088905723451 0.17269492985003099 0.25607980085647331 0.27696510593350088 0.21814242771672102 0.20473171279999791 0.14764941825725392 0.26868407106326975 0.15036836283290225 0.25558003375902427 0.27930249614898134 0.21234805413845118 0.17813418688819038 0.19358102317581924 0.2007120309209259
leaf_weight=24.234103143215179 26.706970810890198 9.3968971371650678 2.7201544344425193 783.1571903526783 403.32471659779549 36.103867948055267 5.1930221021175376 47.479059219360352 21.761235475540161 12.858911871910093 39.565882682800293 52.177507787942886 28.685264945030212 26.212397277355194
leaf_count=98 108 38 11 3167 1631 146 21 192 88 52 160 211 116 106
internal_value=0.209114 0.212876 0.184911 0.214601 0.213579 0.156989 0.194344 0.183398 0.209825 0.206826 0.228968 0.186507 0.166536 0.215274
internal_weight=0 1285.15 74.4333 1210.72 1186.48 38.824 234.428 124.633 48.4682 109.795 52.4248 57.3705 76.1643 35.6093
internal_count=6145 5197 301 4896 4798 157 948 504 196 444 212 232 308 144
is_linear=0
shrinkage=1


end of trees

feature_importances:
sma_5=2
macd_hist=2
bb_width=2
sma_50=1
price_vs_sma200=1
adx_pos=1
bb_squeeze=1
mfi_14=1
sent_avg_72h=1
sent_count_72h=1
sent_neg_pct_72h=1

parameters:
[boosting: gbdt]
[objective: binary]
[metric: binary_logloss,auc]
[tree_learner: serial]
[device_type: cpu]
[data_sample_strategy: bagging]
[data: ]
[valid: ]
[num_iterations: 500]
[learning_rate: 0.05]
[num_leaves: 15]
[num_threads: 0]
[seed: 0]
[deterministic: 0]
[force_col_wise: 1]
[force_row_wise: 0]
[histogram_pool_size: -1]
[max_depth: 4]
[min_data_in_leaf: 10]
[min_sum_hessian_in_leaf: 0.001]
[bagging_fraction: 0.8]
[pos_bagging_fraction: 1]
[neg_bagging_fraction: 1]
[bagging_freq: 5]
[bagging_seed: 3]
[feature_fraction: 0.8]
[feature_fraction_bynode: 1]
[feature_fraction_seed: 2]
[extra_trees: 0]
[extra_seed: 6]
[early_stopping_round: 0]
[early_stopping_min_delta: 0]
[first_metric_only: 0]
[max_delta_step: 0]
[lambda_l1: 0.1]
[lambda_l2: 0.1]
[linear_lambda: 0]
[min_gain_to_split: 0]
[drop_rate: 0.1]
[max_drop: 50]
[skip_drop: 0.5]
[xgboost_dart_mode: 0]
[uniform_drop: 0]
[drop_seed: 4]
[top_rate: 0.2]
[other_rate: 0.1]
[min_data_per_group: 100]
[max_cat_threshold: 32]
[cat_l2: 10]
[cat_smooth: 10]
[max_cat_to_onehot: 4]
[top_k: 20]
[monotone_constraints: ]
[monotone_constraints_method: basic]
[monotone_penalty: 0]
[feature_contri: ]
[forcedsplits_filename: ]
[refit_decay_rate: 0.9]
[cegb_tradeoff: 1]
[cegb_penalty_split: 0]
[cegb_penalty_feature_lazy: ]
[cegb_penalty_feature_coupled: ]
[path_smooth: 0]
[interaction_constraints: ]
[verbosity: -1]
[saved_feature_importance_type: 0]
[use_quantized_grad: 0]
[num_grad_quant_bins: 4]
[quant_train_renew_leaf: 0]
[stochastic_rounding: 1]
[linear_tree: 0]
[max_bin: 255]
[max_bin_by_feature: ]
[min_data_in_bin: 3]
[bin_construct_sample_cnt: 200000]
[data_random_seed: 1]
[is_enable_sparse: 1]
[enable_bundle: 1]
[use_missing: 1]
[zero_as_missing: 0]
[feature_pre_filter: 1]
[pre_partition: 0]
[two_round: 0]
[header: 0]
[label_column: ]
[weight_column: ]
[group_column: ]
[ignore_column: ]
[categorical_feature: ]
[forcedbins_filename: ]
[precise_float_parser: 0]
[parser_config_file: ]
[objective_seed: 5]
[num_class: 1]
[is_unbalance: 0]
[scale_pos_weight: 1]
[sigmoid: 1]
[boost_from_average: 1]
[reg_sqrt: 0]
[alpha: 0.9]
[fair_c: 1]
[poisson_max_delta_step: 0.7]
[tweedie_variance_power: 1.5]
[lambdarank_truncation_level: 30]
[lambdarank_norm: 1]
[label_gain: ]
[lambdarank_position_bias_regularization: 0]
[eval_at: ]
[multi_error_top_k: 1]
[auc_mu_weights: ]
[num_machines: 1]
[local_listen_port: 12400]
[time_out: 120]
[machine_list_filename: ]
[machines: ]
[gpu_platform_id: -1]
[gpu_device_id: -1]
[gpu_use_dp: 0]
[num_gpu: 1]

end of parameters

pandas_categorical:[]
